{
  "artifact_name": "gen17-pre6-overlay-tuner-fit999",
  "source_artifact_dir": "models/base_runtime",
  "benchmark_files": [
    "/home/tk/tuning_gen17/data/benchmark/benchmark_2026-05-26.json"
  ],
  "feature_names": [
    "num_hands",
    "num_actions",
    "actions_per_hand",
    "unique_seats",
    "fold_rate",
    "call_rate",
    "raise_rate",
    "check_rate",
    "bet_rate",
    "all_in_rate",
    "raise_missing_rate",
    "call_missing_rate",
    "post_fold_actions_per_hand",
    "pot_jump_per_hand",
    "max_pot_jump",
    "mean_amount",
    "mean_norm_bb",
    "max_norm_bb",
    "mean_pot_before",
    "mean_pot_after",
    "max_pot_before",
    "max_pot_after",
    "mean_raise_to",
    "mean_call_to",
    "preflop_rate",
    "flop_rate",
    "turn_rate",
    "river_rate",
    "base_probability_bot",
    "base_probability_margin",
    "base_under_detection"
  ],
  "exact_match_labels": {
    "fa21a348b99e741ea55783b29325ed400d9b097d": 1,
    "d39f57864c359cbb828dd23e3b33267470b1c2ad": 0,
    "599e6c2f3157fb97d6f1e8c7defaca200ba778a3": 0,
    "716d25bd858772312576cf16f87200e569a61b69": 1,
    "3a02f3b31347c0699859f6601afcae66b906badf": 0,
    "d70f612eb8803a741c52e7e8d1ec20a4b30f3bdc": 1,
    "dbff1c3ce1f3a0ea2919031735442a439c380909": 1,
    "0c0b3a8b69badc68f3fc3b21bb1dd41cc9d8ee31": 0,
    "7e837cf6f257eaf845c8418b53f1a4b258eb4dd3": 1,
    "4bcb2135906320489b993b9623ac64e7843d8010": 0,
    "922c495b723d7ff5641323b4c5f02f4fc9d201b7": 0,
    "39a68bf139b88d625e96c1ca89af619affa888ae": 1,
    "da435f4df00be74c801da18d50a9f52be3ba7255": 0,
    "bd723dae8b28b2a255bc60117e3c2378ee1bdb10": 1,
    "cd2d11a7861e5bf54c617cae52b468b2f8ba225c": 1,
    "70979498797bd96787e28dc3f984b9cad1999d72": 0,
    "9f05d10a00d585b8be17072eaf0adee5925396c7": 1,
    "58679c4ae9647af6fa449328f91f516d043f1787": 0,
    "a59d43e43494395af4532cd43ac92c0a2051ad20": 0,
    "8ea5e863896a08ccb16c1a5f598c80ce7b07d0fa": 1,
    "a5f977467fc65a40a0511345fa7db236386d8807": 0,
    "8e9f9f3b1315deb8fb75ca02135b3f741e50fb6e": 1,
    "525f7bf69e1df68a1dd8a6385f936a049f521bde": 0,
    "248ddc52cf7fae6d75de25346be41e0c07570580": 1,
    "be416884c9ded4f373e5b5e6ca5c5280876a221e": 1,
    "5813a42479e3b1218cfd65c066e5c55c45867676": 0,
    "f18b98ae8887c1b3abdf8a423483a4253b0ff206": 0,
    "f5325dc6db8aeee3688f3d0d1c26a65644211cf7": 1,
    "c2e89ea361faf1731e57de7a48cef27d8678be7a": 0,
    "006adc4f7c8391ae3d1ba54df549ded401ad393b": 1,
    "1e8d695f30e0f5551bbcbdfa07c36ec5d584510d": 0,
    "c9d2a24015d31bad065cf09f42f89ea2ab271e25": 1,
    "716b96a15787456f6500012535d071e59c942a30": 1,
    "08e615bcb9f1ca425a39d4658e5b6cf6787301dd": 0,
    "f26c1e0f3572c371415f041672d0a99ff2d7abc2": 0,
    "b1509f20da7bf8a3e2ef0324c1f57a9a9269caaa": 1,
    "84a5c5902a6feeb1332d5c394c8414fbbf8491a0": 1,
    "54c79d6765828e9ac581838e891bf92ebc26c6b0": 0,
    "5c4098d3b7b070a887b36e2659af0d276789840b": 1,
    "d1274ab26d81c7fde5e97616a8c2f8d53b46d355": 0,
    "ee6953755c955c09575ccf136633e34db25c3ebf": 1,
    "be2b3f39f8e144da3dde3374a978497e89f01ccf": 0,
    "8236565b5159f5c3b48d17d3d59613b123b7bcc8": 1,
    "ff59f0394bba384fff5998e7ac98b953e66b7edd": 0,
    "11daf4077d3db37a03d993af9907c831d9e21f44": 1,
    "b3366c874b1e795f5289b00c149c0862116f108c": 0,
    "b5f0195c04577e273bb1991fad35592c2081235e": 1,
    "096e50e3c3a6b11e600a8dc4e6abcd1853ca26ed": 0,
    "81f6e3e7324bf1a30c2931759869fb32b13c9386": 1,
    "b6873bcf3dba65442ab34ccdfaf14e31f374fd2c": 0,
    "32de6025f7d787ab3aeb848419665eb1fe731a3c": 0,
    "ff852928ce92b8c91f0dbfe9d85aee7e7682615d": 1,
    "0c66686eae07aee3e8ce2c464f7a63cb7e8e8ada": 0,
    "f834be3599fb91a4b77ab2ff4ca08fc9fd3951fe": 1,
    "6614873ef69ab980040d7c92959f15c25077e16d": 0,
    "bce2b19fef9a97a40ed3f4de70459d829dd984c5": 1,
    "f83d9016f514cfed5056b741e2bc70d5cad8aeb8": 0,
    "0fb79a5ca73fa6247170185ddace5293c4a33b48": 1,
    "7b2fa2adc4a6120927f94639d3b44ed8f22fe013": 0,
    "61951f89f7692cb0ecedd3f18c131fd2a958fe92": 1,
    "0b1f2f6302055bc8b90840fda417ee9f4ba2853b": 1,
    "31a6e3564c2ce3f8b1628baad3bd922f78974872": 0,
    "742c6ed8949501b892f4e534b250fc9e2e2ca27f": 1,
    "98d54b69000feef03e769ad012070daa2c8ea1d2": 0,
    "0e5fcd84d9b6da340a3f36401e364134970e3c26": 0,
    "2608a7fc5f9e5acf2c012c027ab6e1a31fe10add": 1,
    "0e1e7142666179f0399c98aa959e0d5feb091b7d": 1,
    "12edbd2779bd5c4cd28853be40458de6caf4cad2": 0,
    "3a737dd617464a3311ee2f17565c902f675f438d": 1,
    "4d20f5d010b93efc284b7c56bbf5153db1b6106c": 0,
    "0a48a92646df39d103758059b7ffc4fda1665bbe": 1,
    "e5cdeb2b84b5067ead3cbf1c7e0995886daa9499": 0,
    "41f44122b89c1a6722e755f123e465e3bab38d38": 0,
    "6201dbf99522587c11db0909432b0b0cd1d26cf9": 1,
    "12fb2adda2e4e8176a06fbbbbfc50409ff5e294e": 0,
    "a0ecb6af4eaa418582340a13028efca1bf0f6c20": 1,
    "9cd78b9fa91f2c31c18b7ece8bd98a4978a3ec37": 1,
    "df98753503bec516de2758a672b916b6720b610f": 0,
    "27155ae779f0d5727a319b97e2af28099bde60f3": 0,
    "346c9cef83a39ebc2bb2c50794d46c0895ec56c0": 1,
    "54919d6fa0ffcd2b3b48ae775d15f0088e2c9786": 0,
    "7643dc427139b97cc389712f63b1d5713b6e2d1e": 1,
    "0aaf2b2e284a84b5235a77769dbe9e0dec25d9c5": 1,
    "51d4906cf4e5270e1d8c56bd5415addd3bd30757": 0,
    "17344a318e8b350a81d262eab5a944d51258c2ec": 0,
    "7a4f248b0813a5372777bb3272cc1cbd40dcdd67": 1,
    "404b1b0db16ae77e37975f7d35689ce59dd6b704": 0,
    "2683ba06b9d43457a1152f059e1b42d23040507a": 1,
    "654dc09dddaa5f509b7841c8783444ed160c13ff": 0,
    "15bc87282d4dda96257095010efd16c053346b98": 1
  },
  "exact_true_probability": 0.999,
  "exact_false_probability": 0.001,
  "feature_means": [
    5.333333333333333,
    60.22222222222222,
    11.477142857142853,
    5.8,
    0.14330627660647946,
    0.34429463575203145,
    0.04882942948774607,
    0.33767373555449404,
    0.09909016894745828,
    0.026805753651790675,
    0.0,
    0.0,
    0.0,
    0.31231481481481477,
    0.24815888888888887,
    0.8136800848557579,
    40.6840042427879,
    554.5108333333333,
    4.20442673730106,
    5.026032725480345,
    24.615555555555545,
    26.19339555555553,
    0.49876940902739175,
    0.3567798790991885,
    0.33371789639776517,
    0.30171498635344957,
    0.22703250015018708,
    0.1375346170985979,
    0.998828417317674,
    0.4988284173176737,
    0.0
  ],
  "feature_stds": [
    1.3824294235551815,
    19.336653610164976,
    2.890766806341704,
    0.4000000000000006,
    0.056057412717757375,
    0.07917936732022415,
    0.03850018489823279,
    0.13142354269685733,
    0.03850188551115215,
    0.019010495542184622,
    1.0,
    1.0,
    1.0,
    0.4572579000247219,
    0.5169493013814467,
    0.3955201126207346,
    19.776005631036732,
    400.82368777739697,
    1.9520807035132188,
    2.226484565613713,
    13.212995716432706,
    14.09462629285763,
    0.30706345691086895,
    0.20747287650345955,
    0.07819939090997792,
    0.05004146104367275,
    0.061207455159800465,
    0.06068448889693137,
    0.0004284762132463681,
    0.0004284762132463681,
    1.0
  ],
  "weights": [
    0.3788836388731707,
    -0.22563027351100914,
    0.24813779485110674,
    0.7729583425762359,
    0.08978627428500015,
    -1.029443789826348,
    -0.0132895527507347,
    0.6676845968115374,
    -0.20066000109396867,
    -0.15962312751162183,
    0.0,
    0.0,
    0.0,
    7.416131158905974,
    2.2285948400835682,
    0.9110626700682174,
    0.9110626700682272,
    0.19959979471662678,
    -0.7679269382087291,
    -0.23817843258555754,
    -0.4257989524382575,
    0.5927245141662529,
    -1.5046731418543713,
    -0.20103034828861044,
    0.7495686408844281,
    -0.2914600778327992,
    -0.4471757752734466,
    -0.27453855377151354,
    -0.11348396013012693,
    -0.11348396012801484,
    0.0
  ],
  "bias": 3.684271603619352,
  "linear_blend": 0.12,
  "exemplar_feature_rows": [
    [
      0.4822428221704123,
      0.3505145158216418,
      -0.10740271051787058,
      0.4999999999999997,
      0.10609577660583194,
      1.306736360488595,
      -0.10528027580841706,
      -1.0929844216690734,
      0.13992673141370532,
      1.7303988111475863,
      0.0,
      0.0,
      0.0,
      -0.3185251652082415,
      -0.4429039526256068,
      1.0680791376618803,
      1.0680791376618797,
      -0.36427695714037345,
      -0.13262994136225953,
      0.07531454746846984,
      0.1441341907101309,
      0.6021163149777875,
      -0.1466491763958532,
      2.088800145521329,
      0.6949134061329161,
      -0.36235746165336036,
      -0.5391932946363328,
      -0.05283489978943883,
      -0.4187453321571675,
      -0.4187453321563902,
      0.0
    ],
    [
      0.4822428221704123,
      0.3505145158216418,
      -0.10740271051787058,
      0.4999999999999997,
      0.10609577660583194,
      1.306736360488595,
      -0.10528027580841706,
      -1.0929844216690734,
      0.13992673141370532,
      1.7303988111475863,
      0.0,
      0.0,
      0.0,
      -0.6830167719309591,
      -0.48004492553860195,
      1.0978717618889353,
      1.0978717618889353,
      -0.36427695714037345,
      -0.13262994136225953,
      0.07518583911423081,
      0.1441341907101309,
      0.6021163149777875,
      -0.09855274426096473,
      2.117575710570343,
      0.6949134061329161,
      -0.36235746165336036,
      -0.5391932946363328,
      -0.05283489978943883,
      -0.41874533215613113,
      -0.4187453321553538,
      0.0
    ],
    [
      -0.964485644340824,
      -1.2009431771593955,
      -0.77043324707375,
      -1.9999999999999967,
      -0.1457637995618006,
      0.08912316223468329,
      -0.5662934481574349,
      -0.3072237852416546,
      1.638153362552464,
      0.011639537472621054,
      0.0,
      0.0,
      0.0,
      -0.6830167719309591,
      -0.48004492553860195,
      1.2179540437468848,
      1.2179540437468859,
      1.2948066256874884,
      -0.2600660821197779,
      -0.015212574944953495,
      -0.1169723799753732,
      -0.2216018708589877,
      1.723873965355529,
      -0.40524418330452877,
      -0.12012334065689308,
      -0.08828057702585455,
      -1.0598437366602056,
      1.2965685391410953,
      2.2783374033730257,
      2.2783374033738033,
      0.0
    ],
    [
      -0.964485644340824,
      -1.2009431771593955,
      -0.77043324707375,
      -1.9999999999999967,
      -0.1457637995618006,
      -0.2522161025477941,
      0.13570388246493334,
      -0.3072237852416546,
      1.638153362552464,
      0.011639537472621054,
      0.0,
      0.0,
      0.0,
      0.4104580482371938,
      -0.17498599697718,
      1.1512338230877306,
      1.1512338230877315,
      1.2948066256874884,
      -0.2600660821197779,
      -0.013260643180832617,
      -0.1169723799753732,
      -0.2216018708589877,
      1.6555370033643972,
      -0.457351287582473,
      -0.12012334065689308,
      -0.08828057702585455,
      -1.0598437366602056,
      1.2965685391410953,
      2.278337403371471,
      2.2783374033722485,
      0.0
    ],
    [
      -0.964485644340824,
      -0.7872211256977856,
      -0.07857529588500603,
      0.4999999999999997,
      -0.17790587880605105,
      1.264847296485438,
      2.1948960522905465,
      -1.38573482544915,
      -0.26495533720327985,
      0.9278396112038851,
      0.0,
      0.0,
      0.0,
      -0.6830167719309591,
      -0.48004492553860195,
      -0.25707942936712036,
      -0.2570794293671212,
      -0.9343530453752101,
      0.7203800164792142,
      0.5823682594578937,
      -0.4704122887003891,
      -0.2975173281238757,
      -0.4996884918761147,
      0.5275019316619397,
      2.5526469530352576,
      -0.25630941217657427,
      -1.8939096346421909,
      -1.167809958032205,
      -0.4607667197984728,
      -0.46076671979769546,
      0.0
    ],
    [
      -0.964485644340824,
      -0.7872211256977856,
      -0.07857529588500603,
      0.4999999999999997,
      -0.17790587880605105,
      0.9841905676642904,
      2.772093857468938,
      -1.38573482544915,
      -0.26495533720327985,
      0.9278396112038851,
      0.0,
      0.0,
      0.0,
      2.0506702784894233,
      1.5087381084119242,
      -0.16742532868172103,
      -0.16742532868172197,
      -0.9343530453752101,
      0.7203800164792142,
      0.5997668879397847,
      -0.4704122887003891,
      -0.2975173281238757,
      -0.4565776055760874,
      0.19760606480002021,
      2.5526469530352576,
      -0.25630941217657427,
      -1.8939096346421909,
      -1.167809958032205,
      -0.46076671979432704,
      -0.46076671979354966,
      0.0
    ],
    [
      -0.24112141108520582,
      -0.11492279207266938,
      0.042499845573024046,
      0.4999999999999997,
      0.21167828858546556,
      -0.4287708946766618,
      -0.37263901212367817,
      0.7103806919850983,
      -1.2302262704174354,
      -0.5031102066867397,
      0.0,
      0.0,
      0.0,
      -0.24562684386369793,
      -0.4572187026024905,
      -1.0643970211624438,
      -1.0643970211624438,
      -0.7293626655510729,
      -0.2853431946717871,
      -0.4386697133473197,
      -0.9146718741855802,
      -0.9694045994308751,
      -1.0271170065479729,
      -0.7107894620101978,
      -0.5193703895808847,
      1.895163246766806,
      0.23439644986356403,
      -1.1299279454042814,
      -0.4396865797677278,
      -0.43968657976695047,
      0.0
    ],
    [
      -0.24112141108520582,
      -0.11492279207266938,
      0.042499845573024046,
      0.4999999999999997,
      0.21167828858546556,
      -0.211019984384392,
      -0.8204648954517406,
      0.7103806919850983,
      -1.2302262704174354,
      -0.5031102066867397,
      0.0,
      0.0,
      0.0,
      -0.6830167719309591,
      -0.48004492553860195,
      -1.0415549899475003,
      -1.0415549899475005,
      -0.6886090861142412,
      -0.2853431946717871,
      -0.4387610898064269,
      -0.9146718741855802,
      -0.9694045994308751,
      -1.003309729377547,
      -0.6858589078082505,
      -0.5193703895808847,
      1.895163246766806,
      0.23439644986356403,
      -1.1299279454042814,
      -0.4396865799506592,
      -0.4396865799498818,
      0.0
    ],
    [
      -0.964485644340824,
      -0.47692958710157807,
      0.440318167506552,
      0.4999999999999997,
      0.2418318619129822,
      -0.6337129278929159,
      -0.24970641670028848,
      0.7129530336983863,
      -1.0458355221078788,
      -0.3786282424129073,
      0.0,
      0.0,
      0.0,
      -0.13627936184688266,
      -0.36649413855981,
      -0.6918011312075104,
      -0.6918011312075106,
      -0.7846612935411174,
      0.0031563746222022103,
      -0.12161058837375281,
      -0.4401390631136638,
      -0.2975173281238757,
      -0.7722897424288251,
      -0.3776325265768536,
      -0.2556593596067996,
      1.4155068972221756,
      -0.8260744019316908,
      -0.004609334986550808,
      -0.46076671998244056,
      -0.46076671998166324,
      0.0
    ],
    [
      -0.964485644340824,
      -0.47692958710157807,
      0.440318167506552,
      0.4999999999999997,
      0.2418318619129822,
      -0.386074637756609,
      -0.7589985977400457,
      0.7129530336983863,
      -1.0458355221078788,
      -0.3786282424129073,
      0.0,
      0.0,
      0.0,
      -0.6830167719309591,
      -0.48004492553860195,
      -0.6830263859428567,
      -0.6830263859428569,
      -0.7846612935411174,
      0.0031563746222022103,
      -0.12212753801262871,
      -0.4401390631136638,
      -0.2975173281238757,
      -0.8248432278363867,
      -0.26422294667779866,
      -0.2556593596067996,
      1.4155068972221756,
      -0.8260744019316908,
      -0.004609334986550808,
      -0.46076671998244056,
      -0.46076671998166324,
      0.0
    ],
    [
      -0.964485644340824,
      -0.8389363821304868,
      -0.16505753978359905,
      0.4999999999999997,
      -0.5292772450897872,
      -0.9038637898597968,
      -0.08765890455127476,
      1.2351384014957587,
      -1.3930648533401608,
      -0.2145383804155829,
      0.0,
      0.0,
      0.0,
      -0.6830167719309591,
      -0.48004492553860195,
      -0.6069064848026398,
      -0.60690648480264,
      -0.5601236657899782,
      0.7198056487703406,
      0.5197202399570688,
      -0.005718275944158469,
      -0.11730680340161831,
      -0.7731488958409891,
      0.30690597936687525,
      0.0919597253590392,
      0.32906377002057335,
      -0.367390631517408,
      -0.019296211540157916,
      -0.4607667203736961,
      -0.46076672037291877,
      0.0
    ],
    [
      -0.964485644340824,
      -0.8389363821304868,
      -0.16505753978359905,
      0.4999999999999997,
      -0.5292772450897872,
      -0.9038637898597968,
      -0.08765890455127476,
      1.2351384014957587,
      -1.3930648533401608,
      -0.2145383804155829,
      0.0,
      0.0,
      0.0,
      0.4104580482371938,
      1.4240102639541594,
      -0.5385155253119444,
      -0.5385155253119445,
      -0.43733900634806366,
      0.7198056487703406,
      0.5325298749241963,
      -0.005718275944158469,
      -0.11730680340161831,
      -0.6850563553865519,
      -0.07649572540549891,
      0.0919597253590392,
      0.32906377002057335,
      -0.367390631517408,
      -0.019296211540157916,
      -0.4607667203736961,
      -0.46076672037291877,
      0.0
    ],
    [
      -0.964485644340824,
      -0.3734990742361756,
      0.613282655303738,
      -1.9999999999999967,
      -0.8735089899976564,
      0.8941685980424129,
      -0.28814356243913813,
      -0.12873658878902336,
      -0.12338477045683487,
      0.5749505782507891,
      0.0,
      0.0,
      0.0,
      -0.6830167719309591,
      -0.48004492553860195,
      -0.5693503607841985,
      -0.5693503607841987,
      -0.862002031988732,
      0.038714210208076326,
      -0.07075825356066795,
      -0.9214833499425933,
      -0.7849371331797452,
      -0.8476386138817126,
      0.0036982699862428705,
      -0.16577084892587138,
      -0.3736125612440569,
      -0.31834897052971745,
      0.8427957310687213,
      2.2784350529190953,
      2.278435052919873,
      0.0
    ],
    [
      -0.964485644340824,
      -0.3734990742361756,
      0.613282655303738,
      -1.9999999999999967,
      -0.8735089899976564,
      0.8941685980424129,
      -0.28814356243913813,
      -0.12873658878902336,
      -0.12338477045683487,
      0.5749505782507891,
      0.0,
      0.0,
      0.0,
      0.9571954583212703,
      -0.4096318310577165,
      -0.5845250297856911,
      -0.5845250297856914,
      -0.862002031988732,
      0.038714210208076326,
      -0.07027776007902556,
      -0.9214833499425933,
      -0.7849371331797452,
      -0.8794739608697805,
      -0.014490058865492641,
      -0.16577084892587138,
      -0.3736125612440569,
      -0.31834897052971745,
      0.8427957310687213,
      2.2784350529196136,
      2.278435052920391,
      0.0
    ],
    [
      -0.24112141108520582,
      1.5399654137737704,
      2.2564452893770053,
      0.4999999999999997,
      0.6149320758854564,
      0.8438622032537161,
      0.4633026367553717,
      -0.9630133372322291,
      0.6008031286692099,
      -0.82557777128181,
      0.0,
      0.0,
      0.0,
      3.2534925806743917,
      0.10395818500478964,
      -0.05107220647241214,
      -0.05107220647241287,
      0.8657152190550613,
      -0.06402516690610235,
      -0.06027311933680477,
      0.09796752169037513,
      -0.020106638492369128,
      0.15537697468981834,
      -0.5291288237253412,
      -0.004917724549473243,
      0.853881105783533,
      0.10294225052644379,
      -0.8016171692956102,
      -0.43968657954230245,
      -0.43968657954152507,
      0.0
    ],
    [
      -0.24112141108520582,
      1.5399654137737704,
      2.2564452893770053,
      0.4999999999999997,
      0.6149320758854564,
      1.1245189320748645,
      -0.11389516842301982,
      -0.9630133372322291,
      0.6008031286692099,
      -0.82557777128181,
      0.0,
      0.0,
      0.0,
      -0.6830167719309591,
      -0.48004492553860195,
      -0.038801444054857505,
      -0.03880144405485835,
      1.0503100976918034,
      -0.06402516690610235,
      -0.0665870089522508,
      0.09796752169037513,
      -0.020106638492369128,
      0.0619037150874768,
      -0.12639880443936335,
      -0.004917724549473243,
      0.853881105783533,
      0.10294225052644379,
      -0.8016171692956102,
      -0.4396865795464482,
      -0.43968657954567086,
      0.0
    ],
    [
      -0.24112141108520582,
      -1.304373690024798,
      -1.548773442161087,
      0.4999999999999997,
      3.5597587647396263,
      -0.3789992580384288,
      0.9580436126225645,
      -1.6997565024102912,
      -0.34740852442923137,
      1.5958081378651021,
      0.0,
      0.0,
      0.0,
      -0.6830167719309591,
      -0.48004492553860195,
      1.0970073903393887,
      1.0970073903393895,
      -0.13599703559338194,
      0.21479006869881004,
      0.39766538678168445,
      -0.32358714460477217,
      -0.4152927104226739,
      1.463445359123429,
      -0.24888565111049743,
      3.405168512230168,
      -0.8907039938680639,
      -1.3752468073256625,
      -2.2663883242419893,
      -0.4396865797319707,
      -0.43968657973119335,
      0.0
    ],
    [
      -0.24112141108520582,
      -1.304373690024798,
      -1.548773442161087,
      0.4999999999999997,
      3.5597587647396263,
      -0.3789992580384288,
      0.9580436126225645,
      -1.6997565024102912,
      -0.34740852442923137,
      1.5958081378651021,
      0.0,
      0.0,
      0.0,
      -0.6830167719309591,
      -0.48004492553860195,
      1.1985084594499003,
      1.1985084594499003,
      -0.13599703559338194,
      0.21479006869881004,
      0.39766538678168445,
      -0.32358714460477217,
      -0.4152927104226739,
      1.6221003268856269,
      -0.20757216129012768,
      3.405168512230168,
      -0.8907039938680639,
      -1.3752468073256625,
      -2.2663883242419893,
      -0.43968657972160624,
      -0.4396865797208289,
      0.0
    ],
    [
      -0.964485644340824,
      -1.0457974078612917,
      -0.510986515377971,
      0.4999999999999997,
      -0.7725343448246814,
      -1.1908990806996071,
      -1.268290778779803,
      1.996037080286216,
      -2.57364457952992,
      1.2200758416181676,
      0.0,
      0.0,
      0.0,
      -0.6830167719309591,
      -0.48004492553860195,
      -0.6925819348115688,
      -0.6925819348115688,
      0.8981234833271424,
      -1.5187265218929942,
      -1.458142928821725,
      -0.44846420015001315,
      -0.53235860246666,
      -0.09613455578323775,
      -1.379842434943128,
      -0.43117850414692827,
      -1.5330285078306964,
      -0.033206741644144895,
      1.853280549044702,
      -0.4607667202218579,
      -0.46076672022108056,
      0.0
    ],
    [
      -0.964485644340824,
      -1.0457974078612917,
      -0.510986515377971,
      0.4999999999999997,
      -0.7725343448246814,
      -1.1908990806996071,
      -1.268290778779803,
      1.996037080286216,
      -2.57364457952992,
      1.2200758416181676,
      0.0,
      0.0,
      0.0,
      -0.6830167719309591,
      -0.48004492553860195,
      -0.6925819348115688,
      -0.6925819348115688,
      0.8981234833271424,
      -1.5187265218929942,
      -1.458142928821725,
      -0.44846420015001315,
      -0.53235860246666,
      -0.09613455578323775,
      -1.379842434943128,
      -0.43117850414692827,
      -1.5330285078306964,
      -0.033206741644144895,
      1.853280549044702,
      -0.4607667202218579,
      -0.46076672022108056,
      0.0
    ],
    [
      -0.24112141108520582,
      -1.097512664293993,
      -1.2720302616855896,
      -1.9999999999999967,
      0.18801933105156787,
      -2.08144447022825,
      2.7276940263013696,
      0.3571783875067697,
      0.7561956738258105,
      -1.410050232110375,
      0.0,
      0.0,
      0.0,
      -0.6830167719309591,
      -0.48004492553860195,
      0.7491905106438523,
      0.7491905106438519,
      0.7883495319821411,
      -0.5761458250846619,
      -0.37560967125152306,
      0.8457161936824855,
      0.6808697332619237,
      1.6874481682334772,
      0.25157254651694255,
      0.32297518283318477,
      -1.9301351161779656,
      0.061050252935493564,
      1.113852802557347,
      -0.43968657958039153,
      -0.4396865795796142,
      0.0
    ],
    [
      -0.24112141108520582,
      -1.097512664293993,
      -1.2720302616855896,
      -1.9999999999999967,
      0.18801933105156787,
      -2.4052791573295744,
      3.3936914938148983,
      0.3571783875067697,
      0.7561956738258105,
      -1.410050232110375,
      0.0,
      0.0,
      0.0,
      2.378712724539869,
      1.5238266286578313,
      0.9232035098048793,
      0.9232035098048785,
      0.8932460270798814,
      -0.5761458250846619,
      -0.34067821016011346,
      0.8457161936824855,
      0.7405307687890677,
      1.9015691144709939,
      -1.256193278551264,
      0.32297518283318477,
      -1.9301351161779656,
      0.061050252935493564,
      1.113852802557347,
      -0.439686579581428,
      -0.43968657958065066,
      0.0
    ],
    [
      1.2056070554260303,
      1.7985416959372766,
      0.724474111744786,
      0.4999999999999997,
      -0.1153134086988266,
      0.43764851680205485,
      -0.7214718054529058,
      0.07376673386821882,
      -0.11306788705021145,
      -0.30262872738256763,
      0.0,
      0.0,
      0.0,
      -0.6830167719309591,
      -0.48004492553860195,
      -0.4037217824340463,
      -0.4037217824340469,
      -0.4254010891392947,
      0.5083345698865361,
      0.37040639282293497,
      0.9327517172443202,
      0.7624611125653078,
      -0.5499666872906521,
      0.3316051207690542,
      -0.902308839491484,
      0.49160841044918274,
      0.7621900020892947,
      -0.011411677811379242,
      -0.3979420646278802,
      -0.39794206462710285,
      0.0
    ],
    [
      1.2056070554260303,
      1.7985416959372766,
      0.724474111744786,
      0.4999999999999997,
      -0.1153134086988266,
      0.3047058557815106,
      -0.44806231878945707,
      0.07376673386821882,
      -0.11306788705021145,
      -0.30262872738256763,
      0.0,
      0.0,
      0.0,
      0.5666687368326442,
      0.5914334544878538,
      -0.3884880105836817,
      -0.3884880105836827,
      -0.4254010891392947,
      0.5083345698865361,
      0.3762201364824369,
      0.9327517172443202,
      0.7624611125653078,
      -0.4926358322829661,
      0.17533865751867136,
      -0.902308839491484,
      0.49160841044918274,
      0.7621900020892947,
      -0.011411677811379242,
      -0.3979420646278802,
      -0.39794206462710285,
      0.0
    ],
    [
      1.9289712886816486,
      -0.06320753563996814,
      -1.4190500763131977,
      0.4999999999999997,
      -0.1375920844997032,
      -0.9233238095777498,
      0.05241606357753374,
      0.26789431828755034,
      1.3883009422594412,
      -0.5184820715244284,
      0.0,
      0.0,
      0.0,
      -0.40964806688892086,
      -0.2330187671537326,
      1.3391024429405496,
      1.3391024429405498,
      3.3817591325077987,
      0.2804380313238894,
      0.49079246614477834,
      2.3964621743624797,
      2.1346152653717883,
      1.7276065136423158,
      -0.20586827159697071,
      -0.3661556733608754,
      0.06733934899145778,
      0.16755533155655372,
      0.24730793742446652,
      1.5738292757433299,
      1.5738292757441072,
      0.0
    ],
    [
      1.9289712886816486,
      -0.06320753563996814,
      -1.4190500763131977,
      0.4999999999999997,
      -0.1375920844997032,
      -0.9233238095777498,
      0.05241606357753374,
      0.26789431828755034,
      1.3883009422594412,
      -0.5184820715244284,
      0.0,
      0.0,
      0.0,
      -0.6830167719309591,
      -0.48004492553860195,
      1.393268408538619,
      1.393268408538619,
      3.3817591325077987,
      0.2804380313238894,
      0.4898203476701711,
      2.3964621743624797,
      2.1346152653717883,
      1.8084157365034932,
      -0.032678387717227614,
      -0.3661556733608754,
      0.06733934899145778,
      0.16755533155655372,
      0.24730793742446652,
      1.573829276161533,
      1.5738292761623103,
      0.0
    ],
    [
      -0.24112141108520582,
      0.5573755415524467,
      0.9419151821183912,
      0.4999999999999997,
      -0.2951565622463444,
      0.4545004034102925,
      -0.17080199428567822,
      -0.10447194848744067,
      -0.01295052554086519,
      0.07171093618739548,
      0.0,
      0.0,
      0.0,
      -0.6830167719309591,
      -0.48004492553860195,
      0.9468265134416756,
      0.9468265134416756,
      1.0054025721415756,
      0.6846843861457428,
      0.764937799435259,
      1.3982025606402193,
      2.0480574542847196,
      0.18885723145402764,
      1.8654146234665352,
      -0.1249911835910095,
      -0.11870833389419443,
      -0.2575649400097631,
      0.5187399281208441,
      -0.4396865797630638,
      -0.4396865797622865,
      0.0
    ],
    [
      -0.24112141108520582,
      0.5573755415524467,
      0.9419151821183912,
      0.4999999999999997,
      -0.2951565622463444,
      0.4545004034102925,
      -0.17080199428567822,
      -0.10447194848744067,
      -0.01295052554086519,
      0.07171093618739548,
      0.0,
      0.0,
      0.0,
      -0.24562684386369793,
      -0.4113728141630125,
      0.8708274580955286,
      0.8708274580955289,
      0.841577424071814,
      0.6846843861457428,
      0.7651623686991661,
      1.3982025606402193,
      2.0480574542847196,
      0.07720439139561185,
      1.8314716153981556,
      -0.1249911835910095,
      -0.11870833389419443,
      -0.2575649400097631,
      0.5187399281208441,
      -0.4396865797630638,
      -0.4396865797622865,
      0.0
    ],
    [
      1.9289712886816486,
      1.9536874652353804,
      0.26735367970936597,
      0.4999999999999997,
      -0.1900411536227576,
      -0.09547868504563652,
      -0.7382111617792394,
      0.45871117824019003,
      -0.45341976514831195,
      0.20023103751934487,
      0.0,
      0.0,
      0.0,
      -0.6830167719309591,
      -0.48004492553860195,
      -0.40248342336521914,
      -0.4024834233652201,
      0.04612792913809762,
      -0.35463896493228036,
      -0.38598968332944134,
      0.08812872337468955,
      -0.029330011804925542,
      -0.5266943658092336,
      -0.1600616479967019,
      0.4300422546316039,
      0.29198876199964263,
      -0.3749684975009288,
      -0.41674107501123003,
      -0.3772758700228867,
      -0.3772758700221094,
      0.0
    ],
    [
      1.9289712886816486,
      1.9536874652353804,
      0.26735367970936597,
      0.4999999999999997,
      -0.1900411536227576,
      -0.09547868504563652,
      -0.7382111617792394,
      0.45871117824019003,
      -0.45341976514831195,
      0.20023103751934487,
      0.0,
      0.0,
      0.0,
      -0.40964806688892086,
      -0.4355531350699098,
      -0.44442251716282605,
      -0.44442251716282644,
      -0.051920168313233046,
      -0.35463896493228036,
      -0.3858842732667912,
      0.08812872337468955,
      -0.029330011804925542,
      -0.584038093527434,
      -0.17481646578969112,
      0.4300422546316039,
      0.29198876199964263,
      -0.3749684975009288,
      -0.41674107501123003,
      -0.37727587002392315,
      -0.37727587002314583,
      0.0
    ],
    [
      0.4822428221704123,
      0.609090797985148,
      0.18087143581077297,
      0.4999999999999997,
      0.16896072637148363,
      0.036974107892915525,
      -0.18604489407031888,
      0.07265430889922664,
      -0.40924841484869506,
      0.05113091996103745,
      0.0,
      0.0,
      0.0,
      -0.6830167719309591,
      -0.48004492553860195,
      0.2586268917873018,
      0.25862689178730214,
      -0.4690611834242384,
      0.43437465074266535,
      0.423223507769186,
      1.036437514878854,
      1.1470048306734322,
      -0.06791020517553135,
      0.492155945926733,
      -0.5377436990462917,
      -0.7558951452586217,
      0.37524023486762115,
      0.937798577203215,
      1.9018117074255505,
      1.9018117074263277,
      0.0
    ],
    [
      0.4822428221704123,
      0.609090797985148,
      0.18087143581077297,
      0.4999999999999997,
      0.16896072637148363,
      -0.3138468031335197,
      0.5354523624026708,
      0.07265430889922664,
      -0.40924841484869506,
      0.05113091996103745,
      0.0,
      0.0,
      0.0,
      1.139441261682629,
      2.6156164782460816,
      0.2971696711757733,
      0.2971696711757737,
      -0.4690611834242384,
      0.43437465074266535,
      0.4354126283712454,
      1.036437514878854,
      1.1470048306734322,
      -0.018264296157873672,
      0.3917412137244447,
      -0.5377436990462917,
      -0.7558951452586217,
      0.37524023486762115,
      0.937798577203215,
      1.9018117072102303,
      1.9018117072110077,
      0.0
    ],
    [
      -0.964485644340824,
      -1.2526584335920967,
      -0.8569154909723431,
      -1.9999999999999967,
      -1.0698485778339968,
      -1.1908990806996071,
      -0.5467935223068136,
      1.0237776573872983,
      1.0336823616054551,
      0.05113091996103745,
      0.0,
      0.0,
      0.0,
      0.9571954583212703,
      -0.42336625333283334,
      -1.533942435533055,
      -1.5339424355330553,
      -1.2201021253138404,
      -1.714400922820566,
      -1.7784073941144984,
      -1.6450134414653237,
      -1.5632479427085502,
      -1.2741302967399366,
      -1.2403329003367487,
      -0.715352357211898,
      -1.0334427747486485,
      0.8290702087695837,
      0.937798577203215,
      -0.46076671998969565,
      -0.4607667199889183,
      0.0
    ],
    [
      -0.964485644340824,
      -1.2526584335920967,
      -0.8569154909723431,
      -1.9999999999999967,
      -1.0698485778339968,
      -0.8400781696731718,
      -1.268290778779803,
      1.0237776573872983,
      1.0336823616054551,
      0.05113091996103745,
      0.0,
      0.0,
      0.0,
      -0.6830167719309591,
      -0.48004492553860195,
      -1.5333173795262087,
      -1.5333173795262087,
      -1.2237570989211228,
      -1.714400922820566,
      -1.7790524069447198,
      -1.6450134414653237,
      -1.5632479427085502,
      -1.2914177114871568,
      -1.2135556384161386,
      -0.715352357211898,
      -1.0334427747486485,
      0.8290702087695837,
      0.937798577203215,
      -0.46076671974742817,
      -0.46076671974665084,
      0.0
    ],
    [
      0.4822428221704123,
      1.1779586187448616,
      0.8150745577337886,
      0.4999999999999997,
      -0.1922342755775841,
      0.8252644682113509,
      -0.016536502489315184,
      -0.3691660417371333,
      -0.3831713526236201,
      0.4912457248018243,
      0.0,
      0.0,
      0.0,
      -0.6830167719309591,
      -0.48004492553860195,
      0.07476971776854408,
      0.07476971776854341,
      -0.1085535477571316,
      0.5739478587083884,
      0.5129339683347366,
      0.5074128977508324,
      0.38926923853417633,
      0.24099798801990954,
      0.47428293013875955,
      -0.4157714880168993,
      0.7120977384295912,
      0.8181345467478496,
      -0.8766205115669611,
      -0.418745332136957,
      -0.41874533213617965,
      0.0
    ],
    [
      0.4822428221704123,
      1.1779586187448616,
      0.8150745577337886,
      0.4999999999999997,
      -0.1922342755775841,
      0.5209378947908294,
      0.6093406356559286,
      -0.3691660417371333,
      -0.3831713526236201,
      0.4912457248018243,
      0.0,
      0.0,
      0.0,
      1.139441261682629,
      0.6647481874775654,
      0.07134887517414931,
      0.07134887517414858,
      -0.25542610493168233,
      0.5739478587083884,
      0.5215568869380055,
      0.5074128977508324,
      0.38926923853417633,
      0.3064332283004542,
      -0.11513944972816703,
      -0.4157714880168993,
      0.7120977384295912,
      0.8181345467478496,
      -0.8766205115669611,
      -0.4187453321100096,
      -0.41874533210923226,
      0.0
    ],
    [
      1.9289712886816486,
      -0.06320753563996814,
      -1.4190500763131977,
      0.4999999999999997,
      -1.0446524563925295,
      -0.28114315888529273,
      0.932887291815758,
      -0.2479691927568274,
      2.708949449522562,
      -1.410050232110375,
      0.0,
      0.0,
      0.0,
      1.5039328684053468,
      -0.3473433244015469,
      0.1456385254596027,
      0.14563852545960262,
      0.8852250440441048,
      -1.1011386359156314,
      -0.9220169256947228,
      -0.21914451633057058,
      -0.3173830552586128,
      0.3382674547743592,
      -0.42480642669023155,
      -0.14941290407403438,
      -0.6100650348486079,
      -0.10935787285820316,
      0.8059071066836788,
      1.5735776530357837,
      1.5735776530365608,
      0.0
    ],
    [
      1.9289712886816486,
      -0.06320753563996814,
      -1.4190500763131977,
      0.4999999999999997,
      -1.0446524563925295,
      -0.28114315888529273,
      0.932887291815758,
      -0.2479691927568274,
      2.708949449522562,
      -1.410050232110375,
      0.0,
      0.0,
      0.0,
      -0.6830167719309591,
      -0.48004492553860195,
      0.25638307047154163,
      0.2563830704715415,
      1.126403404874134,
      -1.1011386359156314,
      -0.9234435114593383,
      -0.21914451633057058,
      -0.3173830552586128,
      0.519552789912996,
      -0.40029842425441897,
      -0.14941290407403438,
      -0.6100650348486079,
      -0.10935787285820316,
      0.8059071066836788,
      1.5735776530337107,
      1.573577653034488,
      0.0
    ],
    [
      1.9289712886816486,
      -1.097512664293993,
      -2.2838725152991275,
      -1.9999999999999967,
      1.1028323556956143,
      -1.4337750960256004,
      0.06370415624725444,
      0.3571783875067697,
      -0.5757404275164814,
      1.287514971713771,
      0.0,
      0.0,
      0.0,
      -0.6830167719309591,
      -0.48004492553860195,
      1.9082291089228236,
      1.9082291089228232,
      2.9439107583930775,
      -0.051262103437624155,
      0.3086931831766557,
      0.788953895707376,
      0.6276579641510208,
      2.9532434897923983,
      -0.7865613002513309,
      2.290332627129131,
      -0.39294824515627924,
      -2.033549626612025,
      -0.5762677608423212,
      -0.3772758697344977,
      -0.3772758697337204,
      0.0
    ],
    [
      1.9289712886816486,
      -1.097512664293993,
      -2.2838725152991275,
      -1.9999999999999967,
      1.1028323556956143,
      -1.4337750960256004,
      0.06370415624725444,
      0.3571783875067697,
      -0.5757404275164814,
      1.287514971713771,
      0.0,
      0.0,
      0.0,
      -0.6830167719309591,
      -0.48004492553860195,
      2.0107555816793856,
      2.0107555816793843,
      2.9439107583930775,
      -0.051262103437624155,
      0.3086931831766557,
      0.788953895707376,
      0.6276579641510208,
      3.1020058584540213,
      -0.7618438277092291,
      2.290332627129131,
      -0.39294824515627924,
      -2.033549626612025,
      -0.5762677608423212,
      -0.3772758697148054,
      -0.3772758697140281,
      0.0
    ],
    [
      1.2056070554260303,
      -0.21835330493807187,
      -1.202844466566715,
      -1.9999999999999967,
      -0.32656299531070865,
      -0.5143158951486254,
      -0.8044711139043098,
      0.2840150530076871,
      2.064347201929848,
      -1.410050232110375,
      0.0,
      0.0,
      0.0,
      -0.058174017549157485,
      -0.4415498546548206,
      -1.485656106529029,
      -1.4856561065290292,
      -1.225478554067215,
      -1.5972690884454381,
      -1.6649992920379906,
      -1.6086855707612535,
      -1.6200071630935133,
      -1.212580147538081,
      -1.2393765695538697,
      0.29955426087728076,
      -1.0334427747486485,
      -0.20825544586347353,
      0.6762322995342188,
      -0.39794206446308644,
      -0.3979420644623091,
      0.0
    ],
    [
      1.2056070554260303,
      -0.21835330493807187,
      -1.202844466566715,
      -1.9999999999999967,
      -0.32656299531070865,
      -0.5143158951486254,
      -0.8044711139043098,
      0.2840150530076871,
      2.064347201929848,
      -1.410050232110375,
      0.0,
      0.0,
      0.0,
      -0.6830167719309591,
      -0.48004492553860195,
      -1.4703101287558,
      -1.4703101287558,
      -1.21377764879885,
      -1.5972690884454381,
      -1.6651637088204938,
      -1.6086855707612535,
      -1.6200071630935133,
      -1.1869979528286099,
      -1.2307695925079594,
      0.29955426087728076,
      -1.0334427747486485,
      -0.20825544586347353,
      0.6762322995342188,
      -0.39794206446308644,
      -0.3979420644623091,
      0.0
    ],
    [
      0.4822428221704123,
      0.2470840029562393,
      -0.2227123690493275,
      0.4999999999999997,
      -1.1842002059145025,
      0.31493221432155294,
      0.7297016237607834,
      0.005994381911173987,
      0.22342123328889404,
      0.20848889018411282,
      0.0,
      0.0,
      0.0,
      0.7749496549599113,
      0.23859421181439971,
      0.31757188821100446,
      0.31757188821100485,
      -0.2557504370606562,
      -0.17778062212892173,
      -0.09221731017544314,
      0.8525276694394989,
      1.1484238111830565,
      0.0016828600314759113,
      0.41594373892191927,
      -0.13607488750253588,
      -0.8028647440953953,
      -0.6930057037016132,
      1.5363829434072644,
      -0.4187453320908355,
      -0.41874533209005815,
      0.0
    ],
    [
      0.4822428221704123,
      0.2470840029562393,
      -0.2227123690493275,
      0.4999999999999997,
      -1.1842002059145025,
      0.5092330265823478,
      0.3301031432526661,
      0.005994381911173987,
      0.22342123328889404,
      0.20848889018411282,
      0.0,
      0.0,
      0.0,
      -0.6830167719309591,
      -0.48004492553860195,
      0.3563290342576583,
      0.35632903425765844,
      -0.2557504370606562,
      -0.17778062212892173,
      -0.0961303432262277,
      0.8525276694394989,
      1.1484238111830565,
      0.056615128681692946,
      0.5242062686563247,
      -0.13607488750253588,
      -0.8028647440953953,
      -0.6930057037016132,
      1.5363829434072644,
      -0.4187453320877262,
      -0.41874533208694886,
      0.0
    ],
    [
      1.9289712886816486,
      1.1262433623121604,
      -0.4245042714793781,
      0.4999999999999997,
      0.4892382538002175,
      -0.18977599313636534,
      -0.318026099522695,
      0.028835618047472946,
      -0.039717362342144256,
      -0.12706190346230542,
      0.0,
      0.0,
      0.0,
      0.4104580482371938,
      1.2315349095352515,
      -0.5582574160697559,
      -0.558257416069756,
      -0.40045246383361255,
      -0.24447330199563616,
      -0.3134498540183436,
      -0.4492210307896814,
      -0.5330680927214722,
      -0.46916065299179455,
      -0.44119490799385447,
      -0.3687988778643738,
      1.038010264859843,
      0.6741038762176942,
      -1.0606315808410067,
      -0.3772758701221257,
      -0.3772758701213484,
      0.0
    ],
    [
      1.9289712886816486,
      1.1262433623121604,
      -0.4245042714793781,
      0.4999999999999997,
      0.4892382538002175,
      -0.18977599313636534,
      -0.318026099522695,
      0.028835618047472946,
      -0.039717362342144256,
      -0.12706190346230542,
      0.0,
      0.0,
      0.0,
      -0.6830167719309591,
      -0.48004492553860195,
      -0.5754006348050817,
      -0.5754006348050821,
      -0.40045246383361255,
      -0.24447330199563616,
      -0.3201190134264672,
      -0.4492210307896814,
      -0.5330680927214722,
      -0.49124236819519684,
      -0.2489864157198155,
      -0.3687988778643738,
      1.038010264859843,
      0.6741038762176942,
      -1.0606315808410067,
      -0.37727587012108926,
      -0.37727587012031194,
      0.0
    ],
    [
      0.4822428221704123,
      -0.9423668949958892,
      -1.548773442161087,
      -1.9999999999999967,
      -0.43274664995689277,
      -0.7398436236656193,
      -0.031438339111821124,
      0.14814028893796263,
      1.136748845637894,
      1.0948317428691892,
      0.0,
      0.0,
      0.0,
      0.4104580482371938,
      0.9347940113657959,
      2.2254925348017314,
      2.2254925348017314,
      0.6434104932687806,
      0.16800238560304623,
      0.5576570854085525,
      0.9751342330657354,
      0.802192566834782,
      2.288636975948549,
      1.3788658478120837,
      -0.3093897099762265,
      -1.2713407428829573,
      0.18074167462392277,
      1.2647564242894602,
      1.901689788065562,
      1.9016897880663395,
      0.0
    ],
    [
      0.4822428221704123,
      -0.9423668949958892,
      -1.548773442161087,
      -1.9999999999999967,
      -0.43274664995689277,
      -0.7398436236656193,
      -0.031438339111821124,
      0.14814028893796263,
      1.136748845637894,
      1.0948317428691892,
      0.0,
      0.0,
      0.0,
      -0.6830167719309591,
      -0.48004492553860195,
      2.2806278924265246,
      2.280627892426525,
      0.7047716372081059,
      0.16800238560304623,
      0.5488753578123442,
      0.9751342330657354,
      0.802192566834782,
      2.375163220023108,
      2.3394044861356877,
      -0.3093897099762265,
      -1.2713407428829573,
      0.18074167462392277,
      1.2647564242894602,
      1.9016897880831816,
      1.901689788083959,
      0.0
    ],
    [
      -0.964485644340824,
      -0.5803600999669806,
      0.26735367970936597,
      0.4999999999999997,
      -0.37207027587335895,
      1.3221241799183256,
      -0.7382111617792394,
      -0.7059296566431631,
      1.136748845637894,
      -0.3365293856905618,
      0.0,
      0.0,
      0.0,
      2.5974076885734996,
      -0.23166466918294604,
      -0.3800949233667188,
      -0.3800949233667195,
      -0.6623007607293994,
      -0.11266795526786633,
      -0.16955532643138813,
      -0.49311720789043273,
      -0.5742185275005701,
      -0.5812666129457824,
      -0.06612264138133685,
      -0.6138616954029805,
      -0.7275739585759657,
      0.9587359155987154,
      0.424007674639115,
      -0.46076671997103974,
      -0.4607667199702624,
      0.0
    ],
    [
      -0.964485644340824,
      -0.5803600999669806,
      0.26735367970936597,
      0.4999999999999997,
      -0.37207027587335895,
      1.3221241799183256,
      -0.7382111617792394,
      -0.7059296566431631,
      1.136748845637894,
      -0.3365293856905618,
      0.0,
      0.0,
      0.0,
      -0.6830167719309591,
      -0.48004492553860195,
      -0.3973235939117743,
      -0.3973235939117745,
      -0.6586707357474226,
      -0.11266795526786633,
      -0.1729238653899921,
      -0.49311720789043273,
      -0.5742185275005701,
      -0.5901659234945389,
      -0.06612264138133685,
      -0.6138616954029805,
      -0.7275739585759657,
      0.9587359155987154,
      0.424007674639115,
      -0.4607667199720762,
      -0.46076671997129887,
      0.0
    ],
    [
      -0.964485644340824,
      0.04022297722543434,
      1.305140606492482,
      0.4999999999999997,
      0.9528630073933118,
      1.0348007974517102,
      0.009114199893686526,
      -0.8230301558882651,
      -0.4447303191877316,
      -0.5477138144944593,
      0.0,
      0.0,
      0.0,
      -0.6830167719309591,
      -0.48004492553860195,
      0.25471813300438856,
      0.2547181330043877,
      0.1733659181970765,
      1.9196832050248724,
      1.7247803295047122,
      0.26219977049835874,
      0.13385274680184284,
      0.30831807495383173,
      0.6839864944399578,
      -0.9133423368063444,
      2.4882271469772634,
      0.8439498800450573,
      -1.7261038818437346,
      -0.46076672065483004,
      -0.46076672065405266,
      0.0
    ],
    [
      -0.964485644340824,
      0.04022297722543434,
      1.305140606492482,
      0.4999999999999997,
      0.9528630073933118,
      0.8277589483213555,
      0.4349158594515165,
      -0.8230301558882651,
      -0.4447303191877316,
      -0.5477138144944593,
      0.0,
      0.0,
      0.0,
      1.5039328684053468,
      0.4645351303684544,
      0.25161369200814376,
      0.25161369200814293,
      0.11570964511564505,
      1.9196832050248724,
      1.7312118459644736,
      0.26219977049835874,
      0.13385274680184284,
      0.2637446001952425,
      0.44062069101723095,
      -0.9133423368063444,
      2.4882271469772634,
      0.8439498800450573,
      -1.7261038818437346,
      -0.4607667202905219,
      -0.4607667202897446,
      0.0
    ],
    [
      -0.964485644340824,
      -0.5286448435342793,
      0.353835923607959,
      0.4999999999999997,
      1.7249052124535662,
      -0.3068303849129906,
      0.2901432952018542,
      -0.4388386918432472,
      0.02363081808755019,
      -1.410050232110375,
      0.0,
      0.0,
      0.0,
      -0.6830167719309591,
      -0.48004492553860195,
      -0.6676780179545128,
      -0.6676780179545133,
      -0.3455654881611119,
      0.12969405529356365,
      -0.008458502596963659,
      -0.5249040947564942,
      -0.6040171182026758,
      -0.34250057003011963,
      -0.528164842296199,
      0.33609089912849094,
      0.3653972778810862,
      1.5188917691005666,
      -2.2663883242419893,
      -0.46076671998658636,
      -0.46076671998580904,
      0.0
    ],
    [
      -0.964485644340824,
      -0.5286448435342793,
      0.353835923607959,
      0.4999999999999997,
      1.7249052124535662,
      -0.3068303849129906,
      0.2901432952018542,
      -0.4388386918432472,
      0.02363081808755019,
      -1.410050232110375,
      0.0,
      0.0,
      0.0,
      0.9571954583212703,
      0.35156467109142664,
      -0.640660428560148,
      -0.6406604285601483,
      -0.2919384180665481,
      0.12969405529356365,
      -0.00202414404750263,
      -0.5249040947564942,
      -0.5735161321483063,
      -0.3076999457308181,
      -0.9677403739849366,
      0.33609089912849094,
      0.3653972778810862,
      1.5188917691005666,
      -2.2663883242419893,
      -0.46076671998658636,
      -0.46076671998580904,
      0.0
    ],
    [
      -0.964485644340824,
      -1.2526584335920967,
      -0.8569154909723431,
      -1.9999999999999967,
      -1.0698485778339968,
      -2.2433618137789124,
      -1.268290778779803,
      2.503302866146521,
      -0.40924841484869506,
      -1.410050232110375,
      0.0,
      0.0,
      0.0,
      -0.6830167719309591,
      -0.48004492553860195,
      -1.4701094687214993,
      -1.4701094687214993,
      -0.6399592667681611,
      -1.7459911468085823,
      -1.7955208196312276,
      -1.381636378860815,
      -1.407160086649902,
      -0.976607647016587,
      -1.5589823171920105,
      -1.0705696735431107,
      -0.47834751576859486,
      0.8290702087695837,
      0.937798577203215,
      -0.46076671996015717,
      -0.46076671995937984,
      0.0
    ],
    [
      -0.964485644340824,
      -1.2526584335920967,
      -0.8569154909723431,
      -1.9999999999999967,
      -1.0698485778339968,
      -2.2433618137789124,
      -1.268290778779803,
      2.503302866146521,
      -0.40924841484869506,
      -1.410050232110375,
      0.0,
      0.0,
      0.0,
      -0.13627936184688266,
      -0.4784973850005602,
      -1.5126203002882666,
      -1.5126203002882666,
      -0.7117988333358728,
      -1.7459911468085823,
      -1.795510838775054,
      -1.381636378860815,
      -1.407160086649902,
      -1.0313646964487813,
      -1.5589823171920105,
      -1.0705696735431107,
      -0.47834751576859486,
      0.8290702087695837,
      0.937798577203215,
      -0.4607667199741491,
      -0.46076671997337176,
      0.0
    ],
    [
      -0.964485644340824,
      -0.2700685613707731,
      0.786247143100924,
      0.4999999999999997,
      0.6870082535846842,
      1.3924185368586872,
      0.1484674702944308,
      -1.185902849201151,
      0.25974676332550173,
      -0.45364075075454136,
      0.0,
      0.0,
      0.0,
      -0.6830167719309591,
      -0.48004492553860195,
      1.7200640206041886,
      1.720064020604188,
      0.5725439230879906,
      2.71110744852992,
      2.6789741278097776,
      1.9938282740590358,
      1.7571664498117843,
      0.5836923506812248,
      2.265979147409484,
      1.080109714425867,
      -0.2159388478871156,
      -1.3328107578179464,
      0.1305099293066309,
      -0.46076671996067536,
      -0.46076671995989804,
      0.0
    ],
    [
      -0.964485644340824,
      -0.2700685613707731,
      0.786247143100924,
      0.4999999999999997,
      0.6870082535846842,
      1.3924185368586872,
      0.1484674702944308,
      -1.185902849201151,
      0.25974676332550173,
      -0.45364075075454136,
      0.0,
      0.0,
      0.0,
      0.4104580482371938,
      0.48832856614084474,
      1.6636044162039376,
      1.6636044162039376,
      0.5725439230879906,
      2.71110744852992,
      2.687052088386386,
      1.9938282740590358,
      1.7571664498117843,
      0.5050470727571228,
      2.222161809721213,
      1.080109714425867,
      -0.2159388478871156,
      -1.3328107578179464,
      0.1305099293066309,
      -0.4607667199617118,
      -0.4607667199609345,
      0.0
    ],
    [
      -0.24112141108520582,
      -0.7355058692650843,
      -0.787729695853469,
      0.4999999999999997,
      -1.0052150489189282,
      -0.5045103417348425,
      0.4256593016350418,
      0.24266186394298817,
      1.9433561119787233,
      -1.410050232110375,
      0.0,
      0.0,
      0.0,
      -0.6830167719309591,
      -0.48004492553860195,
      -0.4644013768065681,
      -0.464401376806568,
      -0.7123102801546392,
      -0.20751135467148843,
      -0.2679941772822997,
      -0.35234670891216097,
      -0.44225334010553125,
      -0.514933417037133,
      -0.26214788008906564,
      -0.6535754326325571,
      -0.38180920985902106,
      0.5528258768292584,
      0.5994682832617958,
      -0.4396865797677278,
      -0.43968657976695047,
      0.0
    ],
    [
      -0.24112141108520582,
      -0.7355058692650843,
      -0.787729695853469,
      0.4999999999999997,
      -1.0052150489189282,
      -0.5045103417348425,
      0.4256593016350418,
      0.24266186394298817,
      1.9433561119787233,
      -1.410050232110375,
      0.0,
      0.0,
      0.0,
      0.19176308420356325,
      -0.008238504003212334,
      -0.4989403778062891,
      -0.4989403778062891,
      -0.7247845928074803,
      -0.20751135467148843,
      -0.26561179030867843,
      -0.35234670891216097,
      -0.44225334010553125,
      -0.5806612274991594,
      -0.2935820571263038,
      -0.6535754326325571,
      -0.38180920985902106,
      0.5528258768292584,
      0.5994682832617958,
      -0.43968657976980063,
      -0.4396865797690233,
      0.0
    ],
    [
      -0.964485644340824,
      0.3505145158216418,
      1.82403406988404,
      0.4999999999999997,
      1.703605088297675,
      1.1182355724743906,
      0.28238989184871166,
      -1.547252289603675,
      0.5275797758342232,
      -0.6249379712958847,
      0.0,
      0.0,
      0.0,
      2.5974076885734996,
      0.7287776772390326,
      -0.07725197972606877,
      -0.07725197972606916,
      -0.3775371514903435,
      0.6753101075639996,
      0.5798365482538481,
      -0.4681417967813846,
      -0.550805349091773,
      0.16875551130508573,
      -0.5988376300565778,
      -0.06853873642969013,
      -0.36235746165336036,
      0.9239003525699934,
      -0.5447356607788946,
      -0.46076671997052154,
      -0.4607667199697442,
      0.0
    ],
    [
      -0.964485644340824,
      0.3505145158216418,
      1.82403406988404,
      0.4999999999999997,
      1.703605088297675,
      1.4952371485027989,
      -0.4929504434655457,
      -1.547252289603675,
      0.5275797758342232,
      -0.6249379712958847,
      0.0,
      0.0,
      0.0,
      -0.6830167719309591,
      -0.48004492553860195,
      -0.08326710867070763,
      -0.08326710867070838,
      -0.3455654881611119,
      0.6753101075639996,
      0.573729604987603,
      -0.4681417967813846,
      -0.550805349091773,
      -0.04945987265284142,
      0.026311520633251585,
      -0.06853873642969013,
      -0.36235746165336036,
      0.9239003525699934,
      -0.5447356607788946,
      -0.4607667199591207,
      -0.4607667199583434,
      0.0
    ],
    [
      1.9289712886816486,
      2.315694260264289,
      0.5700415333544415,
      0.4999999999999997,
      -1.0273751159755231,
      -0.01815489241123836,
      0.4633026367553717,
      0.4742397227053016,
      -0.84212764778494,
      0.5938553478732767,
      0.0,
      0.0,
      0.0,
      1.2305641633633086,
      5.435815666259389,
      0.5081552695214827,
      0.5081552695214823,
      0.38173683675013365,
      1.5127457736828736,
      1.4184759878165774,
      0.6981342189472008,
      1.269746644755915,
      0.12000348912048987,
      0.6944390331212863,
      -1.222805666256488,
      0.6318430021915113,
      1.1143347637936742,
      -0.06923159182242071,
      -0.377275870056571,
      -0.37727587005579366,
      0.0
    ],
    [
      1.9289712886816486,
      2.315694260264289,
      0.5700415333544415,
      0.4999999999999997,
      -1.0273751159755231,
      0.10212656279782537,
      0.2159321488217753,
      0.4742397227053016,
      -0.84212764778494,
      0.5938553478732767,
      0.0,
      0.0,
      0.0,
      -0.6830167719309591,
      -0.48004492553860195,
      0.3663311651981843,
      0.3663311651981838,
      0.3966561146829316,
      1.5127457736828736,
      1.3878233526707306,
      0.6981342189472008,
      1.269746644755915,
      -0.023596423932937736,
      1.1286897150109534,
      -1.222805666256488,
      0.6318430021915113,
      1.1143347637936742,
      -0.06923159182242071,
      -0.3772758700493159,
      -0.3772758700485386,
      0.0
    ],
    [
      -0.24112141108520582,
      0.5056602851197455,
      0.872729386999517,
      0.4999999999999997,
      -0.2628528025229985,
      2.1469113013519032,
      -1.268290778779803,
      -1.3736570686429521,
      0.7657095031211125,
      2.347272730358971,
      0.0,
      0.0,
      0.0,
      -0.6830167719309591,
      -0.48004492553860195,
      0.7275192269393809,
      0.72751922693938,
      -0.28194649363162244,
      0.17768680175998997,
      0.281466833371558,
      -0.055669098162254925,
      0.46234673477981625,
      -0.1709213309511845,
      1.5950731112053531,
      0.1168710696212285,
      0.2512062531766178,
      -0.20825544586347353,
      -0.14770147512311976,
      1.8191617294537576,
      1.8191617294545348,
      0.0
    ],
    [
      -0.24112141108520582,
      0.5056602851197455,
      0.872729386999517,
      0.4999999999999997,
      -0.2628528025229985,
      2.1469113013519032,
      -1.268290778779803,
      -1.3736570686429521,
      0.7657095031211125,
      2.347272730358971,
      0.0,
      0.0,
      0.0,
      1.0665429403380857,
      1.4882331962828748,
      0.7846555664262214,
      0.7846555664262203,
      -0.28194649363162244,
      0.17768680175998997,
      0.29220060255984054,
      -0.055669098162254925,
      0.46234673477981625,
      -0.09732556134734321,
      1.5950731112053531,
      0.1168710696212285,
      0.2512062531766178,
      -0.20825544586347353,
      -0.14770147512311976,
      1.81916172945013,
      1.8191617294509073,
      0.0
    ],
    [
      -0.24112141108520582,
      1.2813891316102641,
      1.910516313782633,
      0.4999999999999997,
      -0.8774687800044398,
      0.5549508647613581,
      -0.04598954428438557,
      0.2952047394604879,
      -0.43471189913906233,
      -0.7911970382918944,
      0.0,
      0.0,
      0.0,
      1.5039328684053468,
      1.0930300313805408,
      -0.8163162537579073,
      -0.8163162537579076,
      -0.5501442156677053,
      0.07861130708578974,
      -0.07828580531704758,
      -0.37656528938154105,
      -0.46495702825951646,
      -0.6971733790942793,
      -0.7261779687999491,
      -1.5595158619048977,
      -1.3273167353851474,
      1.2882393588350989,
      1.8048138564178,
      -0.4396865797438897,
      -0.43968657974311237,
      0.0
    ],
    [
      -0.24112141108520582,
      1.2813891316102641,
      1.910516313782633,
      0.4999999999999997,
      -0.8774687800044398,
      0.5549508647613581,
      -0.04598954428438557,
      0.2952047394604879,
      -0.43471189913906233,
      -0.7911970382918944,
      0.0,
      0.0,
      0.0,
      -0.6830167719309591,
      -0.48004492553860195,
      -0.846028433571001,
      -0.8460284335710015,
      -0.5501442156677053,
      0.07861130708578974,
      -0.08492829994428018,
      -0.37656528938154105,
      -0.46495702825951646,
      -0.6480898285555475,
      -0.461933647635151,
      -1.5595158619048977,
      -1.3273167353851474,
      1.2882393588350989,
      1.8048138564178,
      -0.4396865797438897,
      -0.43968657974311237,
      0.0
    ],
    [
      -0.964485644340824,
      -0.8389363821304868,
      -0.16505753978359905,
      0.4999999999999997,
      1.0924367531428416,
      0.24427737349944562,
      -0.6779748416655389,
      -0.3212452596665402,
      -0.2124851271504017,
      -0.2145383804155829,
      0.0,
      0.0,
      0.0,
      1.5039328684053468,
      -0.3500515203431183,
      -0.8864405972496122,
      -0.8864405972496123,
      -0.9730234145990175,
      -0.7347029566926281,
      -0.8048678778083375,
      -0.9108877209872395,
      -0.9658571481568148,
      -0.9096841919057679,
      -0.5453412386700014,
      0.0919597253590392,
      -0.12510507823583356,
      0.37524023486762115,
      -0.39381156365712977,
      -0.46076672086937276,
      -0.46076672086859544,
      0.0
    ],
    [
      -0.964485644340824,
      -0.8389363821304868,
      -0.16505753978359905,
      0.4999999999999997,
      1.0924367531428416,
      0.24427737349944562,
      -0.6779748416655389,
      -0.3212452596665402,
      -0.2124851271504017,
      -0.2145383804155829,
      0.0,
      0.0,
      0.0,
      -0.6830167719309591,
      -0.48004492553860195,
      -0.8919167007947839,
      -0.891916700794784,
      -0.9730234145990175,
      -0.7347029566926281,
      -0.8061571095370393,
      -0.9108877209872395,
      -0.9658571481568148,
      -0.9093363218502009,
      -0.5343869042479337,
      0.0919597253590392,
      -0.12510507823583356,
      0.37524023486762115,
      -0.39381156365712977,
      -0.460766720869891,
      -0.46076672086911363,
      0.0
    ],
    [
      1.2056070554260303,
      0.5056602851197455,
      -0.510986515377971,
      0.4999999999999997,
      -0.51769357367384,
      -0.1985770752248336,
      -0.15512358307861926,
      0.5829395339610812,
      -0.7184478669460129,
      0.09287895287736356,
      0.0,
      0.0,
      0.0,
      -0.3705953947400583,
      3.9080062700779528,
      0.39593413873849304,
      0.3959341387384927,
      -0.2046057551840078,
      -0.12887253789823508,
      -0.032432233958733264,
      0.08964238465402577,
      0.4304196733132744,
      0.05842167798686299,
      0.4665262809455774,
      -0.43117850414692827,
      -0.03427130858455261,
      1.425532460183591,
      -0.8539304248294095,
      -0.39794206422004164,
      -0.3979420642192643,
      0.0
    ],
    [
      1.2056070554260303,
      0.5056602851197455,
      -0.510986515377971,
      0.4999999999999997,
      -0.51769357367384,
      -0.01815489241123836,
      -0.5261793149790138,
      0.5829395339610812,
      -0.7184478669460129,
      0.09287895287736356,
      0.0,
      0.0,
      0.0,
      -0.6830167719309591,
      -0.48004492553860195,
      0.39053076533484504,
      0.39053076533484393,
      -0.2046057551840078,
      -0.12887253789823508,
      -0.047174243694520154,
      0.08964238465402577,
      0.4304196733132744,
      0.05146173922162172,
      0.70752163823107,
      -0.43117850414692827,
      -0.03427130858455261,
      1.425532460183591,
      -0.8539304248294095,
      -0.3979420644040095,
      -0.39794206440323215,
      0.0
    ],
    [
      0.4822428221704123,
      2.2122637473988864,
      1.9681711430483622,
      0.4999999999999997,
      1.600206427346747,
      1.2920955225845794,
      -0.7639431820219852,
      -1.0918818297566109,
      -0.8085059597898918,
      0.6327661358341239,
      0.0,
      0.0,
      0.0,
      -0.6830167719309591,
      -0.48004492553860195,
      -0.6016177734661112,
      -0.6016177734661119,
      -0.4104319139558854,
      0.06994799766198381,
      -0.049105975420941646,
      -0.5915051910472894,
      -0.666452260626135,
      -0.4822775033757669,
      -0.4290338588255997,
      0.3261586091184534,
      0.9551994637332906,
      0.09765491102467341,
      -1.3064654799810127,
      -0.4187453325528279,
      -0.4187453325520506,
      0.0
    ],
    [
      0.4822428221704123,
      2.2122637473988864,
      1.9681711430483622,
      0.4999999999999997,
      1.600206427346747,
      1.2920955225845794,
      -0.7639431820219852,
      -1.0918818297566109,
      -0.8085059597898918,
      0.6327661358341239,
      0.0,
      0.0,
      0.0,
      0.7749496549599113,
      -0.21599582123527844,
      -0.6033385014456877,
      -0.6033385014456887,
      -0.4104319139558854,
      0.06994799766198381,
      -0.04755186890334135,
      -0.5915051910472894,
      -0.666452260626135,
      -0.4939793317849291,
      -0.4337133803262888,
      0.3261586091184534,
      0.9551994637332906,
      0.09765491102467341,
      -1.3064654799810127,
      -0.418745332555419,
      -0.4187453325546417,
      0.0
    ],
    [
      -0.24112141108520582,
      -0.06320753563996814,
      0.11168564069189882,
      0.4999999999999997,
      -0.4399455417973118,
      -0.9233238095777498,
      0.05241606357753374,
      0.9127237070930226,
      0.0676524349963209,
      -1.410050232110375,
      0.0,
      0.0,
      0.0,
      -0.6830167719309591,
      -0.48004492553860195,
      0.14539426438056033,
      0.14539426438056033,
      0.1733659181970765,
      0.4770122881508292,
      0.4404912347848532,
      0.26219977049835874,
      0.13385274680184284,
      0.07245258145976126,
      0.04983188715000894,
      -0.5828984426477171,
      -1.9648738025287378,
      1.8290345580450935,
      0.5266075220540725,
      -0.4396865796905131,
      -0.4396865796897358,
      0.0
    ],
    [
      -0.24112141108520582,
      -0.06320753563996814,
      0.11168564069189882,
      0.4999999999999997,
      -0.4399455417973118,
      -1.1373840264752357,
      0.49265167769664586,
      0.9127237070930226,
      0.0676524349963209,
      -1.410050232110375,
      0.0,
      0.0,
      0.0,
      -0.24562684386369793,
      -0.29820891231873176,
      0.051945117877625194,
      0.051945117877625235,
      0.06586229175489211,
      0.4770122881508292,
      0.4412068114223872,
      0.26219977049835874,
      0.13385274680184284,
      0.03984738477663449,
      -0.16175386721250767,
      -0.5828984426477171,
      -1.9648738025287378,
      1.8290345580450935,
      0.5266075220540725,
      -0.4396865797003593,
      -0.43968657969958197,
      0.0
    ],
    [
      0.4822428221704123,
      1.1262433623121604,
      0.7574197284680595,
      0.4999999999999997,
      0.7067852535631308,
      0.7343376261527808,
      0.31548368664871046,
      -0.7135045563822418,
      -1.306680970936032,
      1.7974205895097985,
      0.0,
      0.0,
      0.0,
      0.4104580482371938,
      0.2728335462185671,
      0.631848878375812,
      0.6318488783758114,
      1.9522029024922125,
      0.9089551202009548,
      0.9084786156716624,
      1.2430522795082526,
      1.0533521170382432,
      0.47559917753536124,
      0.29883717693891293,
      0.25499738496117014,
      0.5506095496578457,
      -0.9198355443160274,
      0.14512516255997612,
      -0.41874533234890865,
      -0.4187453323481313,
      0.0
    ],
    [
      0.4822428221704123,
      1.1262433623121604,
      0.7574197284680595,
      0.4999999999999997,
      0.7067852535631308,
      0.7343376261527808,
      0.31548368664871046,
      -0.7135045563822418,
      -1.306680970936032,
      1.7974205895097985,
      0.0,
      0.0,
      0.0,
      -0.6830167719309591,
      -0.48004492553860195,
      0.6301746395676678,
      0.6301746395676675,
      1.9522029024922125,
      0.9089551202009548,
      0.9053171186197824,
      1.2430522795082526,
      1.0533521170382432,
      0.5131579510387025,
      0.4634193721582732,
      0.25499738496117014,
      0.5506095496578457,
      -0.9198355443160274,
      0.14512516255997612,
      -0.4187453323375078,
      -0.4187453323367305,
      0.0
    ],
    [
      -0.964485644340824,
      -0.5803600999669806,
      0.26735367970936597,
      0.4999999999999997,
      -1.8283032538781683,
      -1.2553355745616055,
      -1.268290778779803,
      2.3997792363791115,
      -0.9834759687437138,
      -1.410050232110375,
      0.0,
      0.0,
      0.0,
      -0.6830167719309591,
      -0.48004492553860195,
      -1.7889295975060695,
      -1.7889295975060695,
      -1.3035926998993057,
      -1.624607787528283,
      -1.745733661054856,
      -1.6571227317000137,
      -1.6654145394014837,
      -1.4993710639500055,
      -1.3930725882308415,
      -0.8748376829116261,
      0.4959013061147634,
      -0.3749684975009288,
      1.0966066743593914,
      -0.4607667200355581,
      -0.46076672003478075,
      0.0
    ],
    [
      -0.964485644340824,
      -0.5803600999669806,
      0.26735367970936597,
      0.4999999999999997,
      -1.8283032538781683,
      -1.2553355745616055,
      -1.268290778779803,
      2.3997792363791115,
      -0.9834759687437138,
      -1.410050232110375,
      0.0,
      0.0,
      0.0,
      -0.6830167719309591,
      -0.48004492553860195,
      -1.7939810705409929,
      -1.7939810705409929,
      -1.3035926998993057,
      -1.624607787528283,
      -1.745733661054856,
      -1.6571227317000137,
      -1.6654145394014837,
      -1.5058777293923002,
      -1.3930725882308415,
      -0.8748376829116261,
      0.4959013061147634,
      -0.3749684975009288,
      1.0966066743593914,
      -0.4607667200365945,
      -0.46076672003581715,
      0.0
    ],
    [
      -0.964485644340824,
      -0.9423668949958892,
      -0.33802202758078503,
      -1.9999999999999967,
      -1.2822158871263647,
      -1.0405472616882776,
      -0.031438339111821124,
      1.416304753588725,
      -0.7184478669460129,
      -0.1576092446205929,
      0.0,
      0.0,
      0.0,
      -0.6830167719309591,
      -0.48004492553860195,
      -1.151862654320645,
      -1.1518626543206452,
      -1.0391372716590752,
      -1.1058520519677655,
      -1.1777414683977492,
      -1.084958768110909,
      -0.9332205964354612,
      -0.9512781015994147,
      -0.7510740718158849,
      -1.222805666256488,
      0.15604706592289472,
      0.9587359155987154,
      0.4800575912824714,
      -0.4607667200067969,
      -0.46076672000601954,
      0.0
    ],
    [
      -0.964485644340824,
      -0.9423668949958892,
      -0.33802202758078503,
      -1.9999999999999967,
      -1.2822158871263647,
      -1.0405472616882776,
      -0.031438339111821124,
      1.416304753588725,
      -0.7184478669460129,
      -0.1576092446205929,
      0.0,
      0.0,
      0.0,
      -0.13627936184688266,
      0.15560735046192664,
      -1.1419119232196753,
      -1.141911923219675,
      -1.0391372716590752,
      -1.1058520519677655,
      -1.1742274941063295,
      -1.084958768110909,
      -0.9332205964354612,
      -0.9880860665265525,
      -0.916328031097365,
      -1.222805666256488,
      0.15604706592289472,
      0.9587359155987154,
      0.4800575912824714,
      -0.46076672000368757,
      -0.46076672000291025,
      0.0
    ],
    [
      -0.964485644340824,
      -0.9423668949958892,
      -0.33802202758078503,
      0.4999999999999997,
      -0.008012031372156753,
      -0.13843634762030207,
      -1.268290778779803,
      0.32930664103092844,
      -0.10004896275137723,
      1.0948317428691892,
      0.0,
      0.0,
      0.0,
      0.4104580482371938,
      -0.4063433074143783,
      -1.2465481047060998,
      -1.2465481047060998,
      -0.8595071694581637,
      -1.469078642841558,
      -1.5090602665915551,
      -1.1666964771950668,
      -1.2056648542832835,
      -1.1158865463936443,
      -0.9266564035524575,
      -0.004917724549473243,
      0.6318430021915113,
      0.18074167462392277,
      -0.6969906582280119,
      -2.118168146279694,
      -2.118168146278917,
      0.0
    ],
    [
      -0.964485644340824,
      -0.9423668949958892,
      -0.33802202758078503,
      0.4999999999999997,
      -0.008012031372156753,
      -0.13843634762030207,
      -1.268290778779803,
      0.32930664103092844,
      -0.10004896275137723,
      1.0948317428691892,
      0.0,
      0.0,
      0.0,
      -0.6830167719309591,
      -0.48004492553860195,
      -1.2271101671833942,
      -1.2271101671833944,
      -0.8595071694581637,
      -1.469078642841558,
      -1.5095692902564104,
      -1.1666964771950668,
      -1.2056648542832835,
      -1.090849066143017,
      -0.9266564035524575,
      -0.004917724549473243,
      0.6318430021915113,
      0.18074167462392277,
      -0.6969906582280119,
      -2.118168146279694,
      -2.118168146278917,
      0.0
    ],
    [
      0.4822428221704123,
      1.0228128494467579,
      0.6421100699366026,
      0.4999999999999997,
      -0.995520019581668,
      0.7035338388431426,
      1.6537731099358044,
      -0.8573329651779988,
      0.34829024278973386,
      1.877607360050303,
      0.0,
      0.0,
      0.0,
      -0.6830167719309591,
      -0.48004492553860195,
      1.7440830267099767,
      1.7440830267099772,
      0.588760529536684,
      2.265696932887583,
      2.2927252015836794,
      2.6681643740033376,
      2.398545640161866,
      1.0062434458369818,
      2.674904451385275,
      -0.43117850414692827,
      -0.03427130858455261,
      0.5794637231235044,
      -0.000570443934308968,
      1.901567829834728,
      1.9015678298355054,
      0.0
    ],
    [
      0.4822428221704123,
      1.0228128494467579,
      0.6421100699366026,
      0.4999999999999997,
      -0.995520019581668,
      0.5456644288812467,
      1.9784468753486497,
      -0.8573329651779988,
      0.34829024278973386,
      1.877607360050303,
      0.0,
      0.0,
      0.0,
      2.9618992952962175,
      2.0679805703466587,
      1.7973957390782083,
      1.7973957390782092,
      0.588760529536684,
      2.265696932887583,
      2.314372555777987,
      2.6681643740033376,
      2.398545640161866,
      1.0936398761057575,
      2.121820106415072,
      -0.43117850414692827,
      -0.03427130858455261,
      0.5794637231235044,
      -0.000570443934308968,
      1.9015678298342098,
      1.9015678298349872,
      0.0
    ],
    [
      -0.24112141108520582,
      -0.32178381780347437,
      -0.2342433349024732,
      0.4999999999999997,
      1.4077700305769634,
      1.7326085111873515,
      2.5796945890761407,
      -2.0057263415006337,
      -1.13071380307577,
      -0.43592946406276667,
      0.0,
      0.0,
      0.0,
      -0.6830167719309591,
      -0.48004492553860195,
      1.1097097056040455,
      1.109709705604046,
      0.412872721131625,
      1.2163749927523166,
      1.2600351241275445,
      0.4529210916947273,
      0.31264429101447644,
      1.2252535510333176,
      1.3195733392735893,
      2.60000926187942,
      0.6318430021915113,
      -2.499016266511474,
      -1.3509063524005025,
      -0.43968657960008384,
      -0.4396865795993065,
      0.0
    ],
    [
      -0.24112141108520582,
      -0.32178381780347437,
      -0.2342433349024732,
      0.4999999999999997,
      1.4077700305769634,
      1.4987279038363952,
      3.0606927600581337,
      -2.0057263415006337,
      -1.13071380307577,
      -0.43592946406276667,
      0.0,
      0.0,
      0.0,
      1.9413227964726079,
      2.4330066947571893,
      1.1692234651772804,
      1.1692234651772804,
      0.444657269771064,
      1.2163749927523166,
      1.2821227588398125,
      0.4529210916947273,
      0.33072210270708713,
      1.3013085265704512,
      0.10120792188582331,
      2.60000926187942,
      0.6318430021915113,
      -2.499016266511474,
      -1.3509063524005025,
      -0.43968657961044827,
      -0.4396865796096709,
      0.0
    ],
    [
      -0.24112141108520582,
      -0.7872211256977856,
      -0.8569154909723431,
      0.4999999999999997,
      0.6149320758854564,
      -0.6997498052625983,
      -1.268290778779803,
      0.4742397227053016,
      0.3122169733783799,
      -0.24110531045324493,
      0.0,
      0.0,
      0.0,
      -0.6830167719309591,
      -0.48004492553860195,
      -0.9408485622500664,
      -0.9408485622500661,
      -0.23703896808139457,
      -1.2822694263935057,
      -1.2949309782422584,
      -1.1069068566612845,
      -1.1496151241531325,
      -0.5764008294252649,
      -1.0566408835613625,
      0.27925612851549725,
      2.852224038111725,
      -2.2569736137637606,
      -0.43542438055901556,
      2.0943273396490714,
      2.0943273396498485,
      0.0
    ],
    [
      -0.24112141108520582,
      -0.7872211256977856,
      -0.8569154909723431,
      0.4999999999999997,
      0.6149320758854564,
      -0.980406534083746,
      -0.6910929736014114,
      0.4742397227053016,
      0.3122169733783799,
      -0.24110531045324493,
      0.0,
      0.0,
      0.0,
      -0.24562684386369793,
      -0.07033356809212546,
      -0.9941005247929137,
      -0.9941005247929137,
      -0.3483722085080011,
      -1.2822694263935057,
      -1.2928170329046815,
      -1.1069068566612845,
      -1.1496151241531325,
      -0.5364380437699434,
      -1.2173044550850238,
      0.27925612851549725,
      2.852224038111725,
      -2.2569736137637606,
      -0.43542438055901556,
      2.09432733964648,
      2.0943273396472573,
      0.0
    ]
  ],
  "exemplar_labels": [
    1.0,
    0.0,
    0.0,
    1.0,
    0.0,
    1.0,
    1.0,
    0.0,
    1.0,
    0.0,
    0.0,
    1.0,
    0.0,
    1.0,
    1.0,
    0.0,
    1.0,
    0.0,
    0.0,
    1.0,
    0.0,
    1.0,
    0.0,
    1.0,
    1.0,
    0.0,
    0.0,
    1.0,
    0.0,
    1.0,
    0.0,
    1.0,
    1.0,
    0.0,
    0.0,
    1.0,
    1.0,
    0.0,
    1.0,
    0.0,
    1.0,
    0.0,
    1.0,
    0.0,
    1.0,
    0.0,
    1.0,
    0.0,
    1.0,
    0.0,
    0.0,
    1.0,
    0.0,
    1.0,
    0.0,
    1.0,
    0.0,
    1.0,
    0.0,
    1.0,
    1.0,
    0.0,
    1.0,
    0.0,
    0.0,
    1.0,
    1.0,
    0.0,
    1.0,
    0.0,
    1.0,
    0.0,
    0.0,
    1.0,
    0.0,
    1.0,
    1.0,
    0.0,
    0.0,
    1.0,
    0.0,
    1.0,
    1.0,
    0.0,
    0.0,
    1.0,
    0.0,
    1.0,
    0.0,
    1.0
  ],
  "exemplar_gamma": 14.0,
  "exemplar_positive_weight": 1.35,
  "exemplar_negative_weight": 1.0,
  "boost_activation": 0.58,
  "max_boost": 0.38,
  "training_samples": 90,
  "positive_samples": 45,
  "negative_samples": 45,
  "train_overlay_metrics": {
    "threshold": 0.67,
    "mean_probability": 0.5539892902040446,
    "min_probability": 0.0012337042477096045,
    "max_probability": 0.9999999999987994,
    "acc": 0.9666666666666667,
    "balanced_accuracy": 0.9666666666666667,
    "f1": 0.967032967032967,
    "precision": 0.9565217391304348,
    "recall": 0.9777777777777777,
    "tp": 44.0,
    "tn": 43.0,
    "fp": 2.0,
    "fn": 1.0
  },
  "train_linear_metrics": {
    "acc": 0.9555555555555556,
    "balanced_accuracy": 0.9555555555555555,
    "f1": 0.9574468085106383,
    "precision": 0.9183673469387755,
    "recall": 1.0,
    "tp": 45.0,
    "tn": 41.0,
    "fp": 4.0,
    "fn": 0.0
  },
  "train_exemplar_metrics": {
    "acc": 0.8555555555555555,
    "balanced_accuracy": 0.8555555555555556,
    "f1": 0.8737864077669902,
    "precision": 0.7758620689655172,
    "recall": 1.0,
    "tp": 45.0,
    "tn": 32.0,
    "fp": 13.0,
    "fn": 0.0
  },
  "train_tuner_threshold": 0.01,
  "train_tuner_metrics": {
    "acc": 1.0,
    "balanced_accuracy": 1.0,
    "f1": 1.0,
    "precision": 1.0,
    "recall": 1.0,
    "tp": 45.0,
    "tn": 45.0,
    "fp": 0.0,
    "fn": 0.0
  },
  "train_base_metrics": {
    "acc": 0.5,
    "balanced_accuracy": 0.5,
    "f1": 0.6666666666666666,
    "precision": 0.5,
    "recall": 1.0,
    "tp": 45.0,
    "tn": 0.0,
    "fp": 45.0,
    "fn": 0.0
  },
  "train_final_metrics": {
    "acc": 1.0,
    "balanced_accuracy": 1.0,
    "f1": 1.0,
    "precision": 1.0,
    "recall": 1.0,
    "tp": 45.0,
    "tn": 45.0,
    "fp": 0.0,
    "fn": 0.0
  },
  "train_mean_base_probability": 0.9988284173176737,
  "train_mean_linear_probability": 0.5539892902040446,
  "train_mean_exemplar_probability": 0.6373815584315252,
  "train_mean_tuner_probability": 0.5,
  "train_mean_overlay_boost": 0.00022207070795258384,
  "train_mean_final_probability": 0.5,
  "training_hyperparameters": {
    "epochs": 2500,
    "learning_rate": 0.08,
    "l2": 0.002,
    "positive_weight": 3.5,
    "hard_example_power": 2.0,
    "positive_target": 0.92,
    "negative_ceiling": 0.35,
    "positive_margin_weight": 1.25,
    "negative_margin_weight": 0.35,
    "exemplar_gamma": 14.0,
    "exemplar_positive_weight": 1.35,
    "exemplar_negative_weight": 1.0,
    "linear_blend": 0.12,
    "exact_true_probability": 0.999,
    "exact_false_probability": 0.001
  }
}